<?xml version="1.0"?>
<opencv_storage>
<cascade>
  <stageType>BOOST</stageType>
  <featureType>HAAR</featureType>
  <height>24</height>
  <width>24</width>
  <stageParams>
    <boostType>GAB</boostType>
    <minHitRate>9.9500000476837158e-01</minHitRate>
    <maxFalseAlarm>5.0000000000000000e-01</maxFalseAlarm>
    <weightTrimRate>9.4999998807907104e-01</weightTrimRate>
    <maxDepth>1</maxDepth>
    <maxWeakCount>100</maxWeakCount></stageParams>
  <featureParams>
    <maxCatCount>0</maxCatCount>
    <featSize>1</featSize>
    <mode>BASIC</mode></featureParams>
  <stageNum>4</stageNum>
  <stages>
    <!-- stage 0 -->
    <_>
      <maxWeakCount>2</maxWeakCount>
      <stageThreshold>1.1102230246251565e-16</stageThreshold>
      <weakClassifiers>
        <_>
          <internalNodes>
            0 -1 1 -4.1113302111625671e-01</internalNodes>
          <leafValues>
            1. -9.9401795864105225e-01</leafValues></_>
        <_>
          <internalNodes>
            0 -1 0 -6.1689937114715576e-01</internalNodes>
          <leafValues>
            1. -1.</leafValues></_></weakClassifiers></_>
    <!-- stage 1 -->
    <_>
      <maxWeakCount>3</maxWeakCount>
      <stageThreshold>-1.3842757940292358e+00</stageThreshold>
      <weakClassifiers>
        <_>
          <internalNodes>
            0 -1 8 -1.7511345446109772e-01</internalNodes>
          <leafValues>
            7.1428573131561279e-01 -9.9003982543945313e-01</leafValues></_>
        <_>
          <internalNodes>
            0 -1 2 -2.4828329682350159e-01</internalNodes>
          <leafValues>
            1. -9.5638912916183472e-01</leafValues></_>
        <_>
          <internalNodes>
            0 -1 9 4.0810089558362961e-03</internalNodes>
          <leafValues>
            -9.4020497798919678e-01 5.6215316057205200e-01</leafValues></_></weakClassifiers></_>
    <!-- stage 2 -->
    <_>
      <maxWeakCount>3</maxWeakCount>
      <stageThreshold>-9.8571604490280151e-01</stageThreshold>
      <weakClassifiers>
        <_>
          <internalNodes>
            0 -1 6 1.3606165349483490e-01</internalNodes>
          <leafValues>
            -9.8807156085968018e-01 1.</leafValues></_>
        <_>
          <internalNodes>
            0 -1 4 -5.2574926614761353e-01</internalNodes>
          <leafValues>
            1. -9.5762795209884644e-01</leafValues></_>
        <_>
          <internalNodes>
            0 -1 10 6.6011380404233932e-03</internalNodes>
          <leafValues>
            -8.9672183990478516e-01 9.5998346805572510e-01</leafValues></_></weakClassifiers></_>
    <!-- stage 3 -->
    <_>
      <maxWeakCount>3</maxWeakCount>
      <stageThreshold>-1.3026964664459229e+00</stageThreshold>
      <weakClassifiers>
        <_>
          <internalNodes>
            0 -1 7 -4.9219846725463867e-01</internalNodes>
          <leafValues>
            1. -9.8807156085968018e-01</leafValues></_>
        <_>
          <internalNodes>
            0 -1 3 1.6892367601394653e-01</internalNodes>
          <leafValues>
            -9.7146666049957275e-01 8.1167280673980713e-01</leafValues></_>
        <_>
          <internalNodes>
            0 -1 5 -6.2960928678512573e-01</internalNodes>
          <leafValues>
            6.5684175491333008e-01 -9.3365395069122314e-01</leafValues></_></weakClassifiers></_></stages>
  <features>
    <_>
      <rects>
        <_>
          0 2 20 15 -1.</_>
        <_>
          0 7 20 5 3.</_></rects>
      <tilted>0</tilted></_>
    <_>
      <rects>
        <_>
          1 1 18 18 -1.</_>
        <_>
          7 1 6 18 3.</_></rects>
      <tilted>0</tilted></_>
    <_>
      <rects>
        <_>
          1 7 22 4 -1.</_>
        <_>
          1 9 22 2 2.</_></rects>
      <tilted>0</tilted></_>
    <_>
      <rects>
        <_>
          2 10 17 8 -1.</_>
        <_>
          2 14 17 4 2.</_></rects>
      <tilted>0</tilted></_>
    <_>
      <rects>
        <_>
          3 1 12 18 -1.</_>
        <_>
          7 1 4 18 3.</_></rects>
      <tilted>0</tilted></_>
    <_>
      <rects>
        <_>
          3 3 15 21 -1.</_>
        <_>
          8 3 5 21 3.</_></rects>
      <tilted>0</tilted></_>
    <_>
      <rects>
        <_>
          4 0 9 14 -1.</_>
        <_>
          7 0 3 14 3.</_></rects>
      <tilted>0</tilted></_>
    <_>
      <rects>
        <_>
          6 0 9 21 -1.</_>
        <_>
          9 0 3 21 3.</_></rects>
      <tilted>0</tilted></_>
    <_>
      <rects>
        <_>
          6 7 6 15 -1.</_>
        <_>
          9 7 3 15 2.</_></rects>
      <tilted>0</tilted></_>
    <_>
      <rects>
        <_>
          9 22 3 2 -1.</_>
        <_>
          9 23 3 1 2.</_></rects>
      <tilted>0</tilted></_>
    <_>
      <rects>
        <_>
          22 9 2 2 -1.</_>
        <_>
          23 9 1 2 2.</_></rects>
      <tilted>0</tilted></_></features></cascade>
</opencv_storage>
